<?xml version="1.0"?>
<opencv_storage>
<cascade>
  <stageType>BOOST</stageType>
  <featureType>HAAR</featureType>
  <height>50</height>
  <width>50</width>
  <stageParams>
    <boostType>GAB</boostType>
    <minHitRate>9.9500000476837158e-01</minHitRate>
    <maxFalseAlarm>5.0000000000000000e-01</maxFalseAlarm>
    <weightTrimRate>9.4999998807907104e-01</weightTrimRate>
    <maxDepth>1</maxDepth>
    <maxWeakCount>100</maxWeakCount></stageParams>
  <featureParams>
    <maxCatCount>0</maxCatCount>
    <featSize>1</featSize>
    <mode>BASIC</mode></featureParams>
  <stageNum>4</stageNum>
  <stages>
    <!-- stage 0 -->
    <_>
      <maxWeakCount>2</maxWeakCount>
      <stageThreshold>-1.2892057001590729e-01</stageThreshold>
      <weakClassifiers>
        <_>
          <internalNodes>
            0 -1 3 7.3790894821286201e-03</internalNodes>
          <leafValues>
            -9.9805259704589844e-01 8.6666667461395264e-01</leafValues></_>
        <_>
          <internalNodes>
            0 -1 5 -1.1652369052171707e-02</internalNodes>
          <leafValues>
            9.0927743911743164e-01 -9.9558722972869873e-01</leafValues></_></weakClassifiers></_>
    <!-- stage 1 -->
    <_>
      <maxWeakCount>2</maxWeakCount>
      <stageThreshold>-9.8943009972572327e-02</stageThreshold>
      <weakClassifiers>
        <_>
          <internalNodes>
            0 -1 8 2.4746805429458618e-02</internalNodes>
          <leafValues>
            -9.8646032810211182e-01 1.</leafValues></_>
        <_>
          <internalNodes>
            0 -1 2 -7.3593601584434509e-02</internalNodes>
          <leafValues>
            8.8751733303070068e-01 -1.</leafValues></_></weakClassifiers></_>
    <!-- stage 2 -->
    <_>
      <maxWeakCount>3</maxWeakCount>
      <stageThreshold>-1.4784196615219116e+00</stageThreshold>
      <weakClassifiers>
        <_>
          <internalNodes>
            0 -1 4 4.3339677155017853e-02</internalNodes>
          <leafValues>
            -9.8834949731826782e-01 5.0000000000000000e-01</leafValues></_>
        <_>
          <internalNodes>
            0 -1 7 -1.2766007333993912e-02</internalNodes>
          <leafValues>
            4.8742207884788513e-01 -9.6121591329574585e-01</leafValues></_>
        <_>
          <internalNodes>
            0 -1 0 2.1495571359992027e-02</internalNodes>
          <leafValues>
            -9.7749227285385132e-01 5.0904321670532227e-01</leafValues></_></weakClassifiers></_>
    <!-- stage 3 -->
    <_>
      <maxWeakCount>3</maxWeakCount>
      <stageThreshold>-1.2714023590087891e+00</stageThreshold>
      <weakClassifiers>
        <_>
          <internalNodes>
            0 -1 1 -2.1366509795188904e-01</internalNodes>
          <leafValues>
            7.5000000000000000e-01 -9.8452609777450562e-01</leafValues></_>
        <_>
          <internalNodes>
            0 -1 6 -6.1571486294269562e-03</internalNodes>
          <leafValues>
            7.5501853227615356e-01 -9.5580291748046875e-01</leafValues></_>
        <_>
          <internalNodes>
            0 -1 9 1.0015256702899933e-02</internalNodes>
          <leafValues>
            -9.1960614919662476e-01 6.6892665624618530e-01</leafValues></_></weakClassifiers></_></stages>
  <features>
    <_>
      <rects>
        <_>
          7 32 12 9 -1.</_>
        <_>
          13 32 6 9 2.</_></rects>
      <tilted>0</tilted></_>
    <_>
      <rects>
        <_>
          8 1 42 25 -1.</_>
        <_>
          29 1 21 25 2.</_></rects>
      <tilted>0</tilted></_>
    <_>
      <rects>
        <_>
          14 31 20 12 -1.</_>
        <_>
          14 37 20 6 2.</_></rects>
      <tilted>0</tilted></_>
    <_>
      <rects>
        <_>
          15 18 6 10 -1.</_>
        <_>
          15 18 3 5 2.</_>
        <_>
          18 23 3 5 2.</_></rects>
      <tilted>0</tilted></_>
    <_>
      <rects>
        <_>
          15 34 24 9 -1.</_>
        <_>
          15 37 24 3 3.</_></rects>
      <tilted>0</tilted></_>
    <_>
      <rects>
        <_>
          18 19 8 10 -1.</_>
        <_>
          18 19 4 5 2.</_>
        <_>
          22 24 4 5 2.</_></rects>
      <tilted>0</tilted></_>
    <_>
      <rects>
        <_>
          19 8 4 8 -1.</_>
        <_>
          19 8 2 4 2.</_>
        <_>
          21 12 2 4 2.</_></rects>
      <tilted>0</tilted></_>
    <_>
      <rects>
        <_>
          24 4 2 15 -1.</_>
        <_>
          24 9 2 5 3.</_></rects>
      <tilted>0</tilted></_>
    <_>
      <rects>
        <_>
          29 18 6 22 -1.</_>
        <_>
          29 18 3 11 2.</_>
        <_>
          32 29 3 11 2.</_></rects>
      <tilted>0</tilted></_>
    <_>
      <rects>
        <_>
          37 31 2 15 -1.</_>
        <_>
          37 36 2 5 3.</_></rects>
      <tilted>0</tilted></_></features></cascade>
</opencv_storage>
